      2.6162982529
      2.2814829777
     -1.9932058932
      0.8077698026
     -1.5241811853
      1.0101250241
      0.5551033491
     -0.2355509358
     -0.0945768264
     -0.0105613852
      0.0636878766
     -0.5699665749
      0.3834977656
      0.1107722225
      2.8098904828
      1.8386726810
     -1.0145156510
      0.4121956466
      1.1691573587
     -0.8141006423
     -3.1313693979
     -1.3946642206
     -0.2141251108
     -0.4706935851
      2.0807834542
     -3.1537815620
     -0.1041757785
     -3.7721878232
     -1.3564322231
      1.6670013222
     -0.2633562124
      0.0646475983
     -0.7003463127
     -1.3361998464
     -1.5527362657
     -0.7044565344
     -1.3696357967
     -0.0879085536
     -2.0572048574
     -1.3989524509
     -0.9761485188
      1.4440672158
      0.4857284791
     -0.5920972594
      2.1157694532
     -0.3433732458
     -0.0848637504
      1.2596408543
      0.5319375129
     -0.0932946544
     -0.3759208947
     -2.7305995651
      1.6341841615
     -0.2324758117
     -1.2823585597
     -0.2454130092
      1.7221429703
     -1.3152438977
     -1.5570423653
      0.7292990406
      1.5933004923
     -1.2802817406
      1.5124123650
      0.8386999873
     -1.2709440387
      3.0677071310
     -0.1919674636
      1.1872386775
      0.7579690105
     -0.8646182755
      1.4643218709
      0.9493257439
      1.3277495368
     -0.3995605665
      1.1739332981
      0.2757684172
      2.0260121488
     -0.8765872267
      2.8448151070
     -0.9564251296
     -4.0162610005
     -0.0262589224
     -0.4628401313
      0.2315258871
     -1.7773533982
     -1.4068390766
     -0.2488137017
      0.9364251587
      0.3968355235
     -0.0929942786
     -0.9570999184
      0.0482048211
     -2.4149964026
      0.1739117020
     -1.0983725887
      0.1251529659
     -2.4101590494
      2.7765661972
     -0.8786522903
     -1.2376646794
      2.2967843158
     -1.4100767079
      0.4319632428
     -1.2367494478
     -0.7208564817
     -0.5576537718
      0.0699468155
      1.2316476145
     -0.3238613876
     -1.1045560083
      0.2271449467
      1.7936242885
     -0.3770903980
     -0.0680639729
      0.1045070472
      1.2372557801
      0.7691130280
      0.8327669146
     -1.1067758254
      0.4905384043
      4.6719947413
     -1.6402435782
     -0.8636340858
      1.4559856636
     -2.7805036993
      1.7148536213
      2.3749247216
     -3.3624791828
      0.7636751546
     -1.2315859559
      0.8189298453
      2.8871734658
      4.1159042432
      0.2546120179
      2.7996618753
     -1.4002710761
     -1.1493727351
     -1.6632653468
      3.6375914860
      0.6895404777
      1.3348715395
     -5.5842399390
      1.1825739206
      0.4570885198
     -2.0797003146
      0.2331270883
      1.3411047817
     -1.0671112858
     -7.8603927326
      0.8517369343
      0.3926134644
      1.7434890207
      5.0731500758
      1.0426951209
     -0.3792111249
     -1.6593888241
     -0.1064894220
     -0.6359943203
     -1.8009092445
      3.9405864521
     -3.2115241991
      1.5133756564
      0.4080074890
     -1.5386133258
      3.9413138449
     -0.5843074292
     -3.6441432758
     -1.6341472383
      3.5378897802
      0.3829515553
     -1.6568829160
     -2.6791056905
     -1.4165635812
     -0.7939677878
     -1.1706641442
      1.3107771955
      1.8686002405
      2.4992528746
     -2.4303857946
     -0.2912065794
     -1.3714710378
      4.4408027391
     -2.0120107834
     -0.0957964448
      2.1865265977
     -0.5202560570
     -2.4958976138
     -0.4125960043
      3.7426496642
      0.9762296692
     -0.1655499893
     -2.3263452138
     -2.3817958814
     -0.7213542852
      0.2743119027
      1.2720615368
     -0.0024884895
     -0.1748279571
     -0.4531365878
      1.3905277028
      1.2686659490
      1.2689081821
      0.9820415948
      0.9847462710
     -1.8816915413
     -0.8948777613
      6.0610724465
      1.2138788897
     -1.8357032570
     -1.5609494156
      0.8356000352
      0.3020489797
     -0.5993764807
      0.4795020442
     -2.2481049257
      1.7493118125
     -1.3061610373
     -2.2473354425
      2.6307236612
      2.9148217473
      1.5333182852
     -0.6359716028
      0.8267551466
     -0.2403147266
     -1.1615454868
      0.8850863715
      1.5617814921
      0.5112066465
     -2.4305902890
     -0.1276647300
     -0.4981388670
      1.9322073126
      0.9829081095
     -0.0001057035
     -1.2492723039
     -1.0936697729
      0.4200200186
      0.3427733897
      1.4291241698
     -3.5931830037
     -0.4908268973
     -4.6324554485
      0.1363575246
     -1.9846732801
      2.7095331586
     -0.0506267818
     -1.0907781075
     -0.7669857289
      1.2734890880
      0.1447261664
     -0.6715731083
      1.1213027469
      0.2717979268
      0.2878175923
      2.1107359089
     -0.8724954045
      0.5256690930
      0.2833742481
     -0.2700899955
     -1.4582115162
     -0.0407959395
     -0.4596388025
     -0.7246064529
     -0.0694936875
      0.4489250789
      0.2529263974
     -0.2207611335
     -0.3786099421
      1.1432878604
      0.2608714174
      0.3011899052
     -1.1182943943
     -0.2939158748
      0.1758879263
      0.6514687492
      1.3745247845
     -0.3117514255
     -0.0377716714
     -0.7319913860
      1.2939327736
     -0.9048562296
      1.8316653321
      0.0215560241
      0.0537744034
     -0.3443828292
     -0.5632260263
      0.7616098196
      0.1332428127
      0.3109964076
      0.0440813080
     -0.8139837073
     -0.4497117181
      0.2725185136
     -0.8650230181
     -0.8084607848
     -0.2253844481
      0.3451074837
     -0.1821439183
      0.1866849523
     -0.1008547909
      0.3202472677
      0.2173386033
      0.0075117660
     -0.0085790701
     -0.0026143887
      0.1458991546
      0.0218396602
      0.0292279209
     -0.1214462792
      0.0293511307
     -0.2804791409
      0.4197322164
      0.0748442992
     -0.1017886042
     -0.3268945913
     -0.3644742314
      0.2774598954
      0.0984675623
     -0.0295208135
     -0.9413342977
     -1.3051697300
     -0.1033267066
     -0.3519207806
     -0.7538711711
      0.2130912019
      0.6368146972
     -0.3547499134
      0.1326262116
     -0.9338232891
     -0.6397963461
      0.5012324877
     -1.0564608586
     -1.0243696859
      0.3408809495
      0.6365451391
     -0.0869742555
      0.2222706359
      0.5447513640
      0.9263960896
      1.5884640385
      0.8572836583
      1.7405895749
      0.2519430582
      0.2202092021
      1.3708642293
      0.0052512247
      0.4651818940
     -3.9358088974
     -0.3511505956
      0.1251390586
      0.0146505324
      1.0486226633
      1.0150736670
     -1.9906596296
     -0.3268277991
      0.6673789539
      0.3986246235
     -0.4696385085
     -0.9172556377
     -3.9154361425
      1.1806695364
     -2.2010368021
      0.2650497112
      0.6401056466
     -1.0316892111
      0.7581465874
      1.0455327728
      2.5034865245
      2.0809872973
      0.0611127605
     -1.4482462759
      1.4442110848
     -0.3948604248
      2.6268696704
     -2.0381968310
     -3.5011947410
     -0.0712880784
      0.3191582680
     -0.2263766845
      0.6228501634
     -0.7199639241
      0.6755605578
     -0.3172120502
     -0.2614145822
     -0.2738974549
     -0.0125098941
      0.6267330355
      0.6404417353
     -0.8616850925
     -0.2809383908
      0.5770132317
     -0.4841051204
     -0.2713200399
     -0.2649128185
      0.2214546994
      1.5079797465
     -1.0497173227
     -0.4024183413
     -0.1184571109
      1.8130763412
      1.6981287350
      1.3234684213
      0.6160882950
      1.0454646277
     -0.4822680694
      0.0581192913
      0.4226765452
     -0.0293135444
      2.0307575172
      0.7113367790
     -0.4702182680
      1.0197981943
      0.3735623650
     -0.2554119005
     -0.6932477723
     -0.2092418592
      0.1392534097
     -0.4632754045
     -1.6033672576
     -1.7306810977
      1.0904841116
      0.4891645105
      0.2274284485
      0.2234091437
      2.1157228071
     -0.2764467639
     -1.6382770354
     -0.4917395263
     -1.1188315121
     -0.7222693632
     -0.0449741265
     -0.4303059403
     -0.8020407655
      0.0609209026
      0.8371829897
      0.1022978018
      0.0076462699
      0.3132837651
      2.4026777035
      0.3367031129
     -0.5890368911
     -0.2284640894
     -0.1136521523
     -1.6788280233
     -0.6874712934
     -1.2840408739
     -0.8884393554
      2.1378010437
     -2.3172005562
     -1.3206938874
      2.0401761469
     -0.9298186026
     -0.6448347361
      1.3089588544
     -0.3471190399
      0.4206284791
      1.2055485656
     -2.4683202731
     -0.4184537354
     -0.4094187360
     -0.3857208914
      3.0213716107
     -2.1831444755
      0.6758312809
      0.3358357672
     -0.8686256314
     -2.2160357267
     -0.4677206153
      2.6258273437
      0.3466405548
      1.2234108184
      0.6279323294
     -0.4226375924
     -0.2383867382
      0.3953382504
     -0.4450076838
      0.2570481924
     -0.0942512621
      0.4346953771
      0.0279225000
     -0.3413499795
     -0.9287736691
      0.3326070645
      0.1528072819
     -1.4771555007
      1.3555388571
      3.1025262369
     -1.4395780772
     -0.4680855476
     -1.1226516724
     -0.0053689319
     -1.0395591259
     -0.6942399244
     -0.9142484640
     -0.5795897351
     -1.9544861368
     -3.1658396121
      0.7979577064
      0.6566961622
      1.2498521636
      1.1089987395
      1.1028964299
      1.1149577924
     -0.9338424190
      1.4048032732
      1.0149643773
      2.4171221575
      1.0186678882
      0.6865415010
      3.1780101801
     -0.5916114235
     -0.4063557230
      1.7868361421
     -1.1668015642
     -1.1065629776
      2.4429749530
      0.5653980300
     -0.3135485960
     -4.8301116154
     -0.0535922894
     -4.6442507677
     -0.5680137148
      0.8859744981
     -0.0562284434
      1.9389005114
     -2.1633981243
      0.7301314504
      1.5205005927
      0.3611641308
     -0.5709976545
     -2.2155054497
     -2.0052941354
     -3.4926469770
     -2.5264481767
      1.9427046921
      0.0875528734
     -0.4460561676
     -0.1888662693
      0.6953137919
      0.8210984449
      1.0672195907
     -0.1486502673
      0.2015420144
      0.0336976316
      0.4720319956
      0.3721475093
     -0.5631900862
     -0.8045107946
     -0.7346732299
      0.4702873606
     -0.1401452600
      0.4514523496
      0.8621958757
      0.4663757207
     -0.0918426110
      0.6082041214
      1.3224686056
      0.0016594672
      0.0564871195
     -1.8643515516
      0.6513851376
     -1.5768238439
     -0.2540836867
     -0.2031685947
     -1.0879048619
      2.8156667035
     -0.9003161082
      0.6852931875
     -1.0261909739
      0.2151586996
      1.4094237786
      0.1874837063
      1.1115110990
      2.1563957159
      1.0778513028
     -2.2060565053
      0.2173527658
      0.9662501783
     -0.8206100631
      0.1502148096
     -0.1907451985
     -1.3226019706
     -0.8781201812
      2.7982393215
     -1.4414014581
      0.0639186505
     -1.8183770160
     -1.4638074596
     -0.8182558946
     -3.0496897771
      2.0949672755
      0.2463478379
      0.4982926518
      1.4508527423
     -1.4220722454
     -1.1401331325
      0.9848790551
      0.1217463242
      3.2751398291
     -1.6029782525
     -0.8126887378
      1.9421441766
     -0.8558566450
      0.9268985333
      1.2471259664
      0.0831968572
     -0.6675961858
     -1.6555876224
     -1.6199553738
     -0.5026328684
     -1.8471245786
     -0.3595429740
      0.5974102463
     -0.5123605719
      0.1198715730
     -1.3203265191
     -0.5748679529
     -0.8535940269
      0.5400967675
     -1.6544609042
      0.8414407648
     -0.5846972227
      0.9166122545
     -0.3780405131
     -0.1703874467
     -0.9475298946
     -1.6021541237
      0.5825340410
     -1.1395010696
     -1.4550049178
     -0.1317400101
     -0.8246109086
      0.0076898144
     -0.5370340822
     -0.9725674352
     -0.6832799183
      0.5786638284
      0.2291202799
      0.0754193553
     -0.7801516042
      0.4244587598
     -0.9530790815
     -0.1068997027
      0.2247552475
      0.3856493812
      0.0019367515
     -1.5354673312
     -0.1349485138
     -1.1620301766
     -0.1141747707
     -0.8032897589
      0.8562771302
      1.0541379637
      0.5050634584
     -0.9082440898
     -0.4865543086
     -2.3995500870
     -0.0614089102
     -0.3870579171
      0.4227449153
      0.8147321969
     -0.6137007196
     -0.6903335083
      0.7120848218
      0.0363703811
     -0.2798549927
     -0.1401621237
      0.0881501214
      0.7484718027
     -1.7204752840
      0.7855372364
     -0.0858502154
     -0.3775777159
      0.0784490049
     -0.2630194281
      0.2081533331
     -0.2818302340
     -0.1064929330
     -0.7815798973
     -0.3427330631
     -0.8263030123
      0.9762896746
     -0.9910714446
     -0.0699431990
     -0.1397672619
      0.5248346242
      3.9791351807
     -0.8586125599
      1.8612873206
      0.2331460241
      1.2307292744
      0.1241168651
     -0.2325549004
      0.6933317353
     -1.2881170019
      1.0203853725
      0.5407784570
      1.1686554878
     -0.5149877334
      0.9631308219
      2.7705819488
     -1.4647765000
     -0.9590384221
      0.7792983659
     -0.1730134353
      0.0966176089
      3.7704555936
      0.4556384616
      0.5062571210
      1.1347936731
      1.2960590182
      1.0925497087
     -0.1423670755
     -0.7136476812
      0.6452706872
     -0.7351550658
     -1.0016600176
     -1.5555291187
      0.0469685154
      0.4693261924
     -0.1028794293
      0.2536733757
     -0.0477472410
      0.6699042578
      1.3666220916
      0.4567637126
      0.8791516350
     -0.2134903583
      0.6497310906
     -0.4594495993
     -0.3378890385
      1.3589952880
     -0.2503114501
      1.0885483713
     -0.7623758502
     -0.5192616498
      0.2239950311
     -0.0438442804
      0.8769860009
      1.2620148947
      0.5945994174
     -0.0384734791
     -0.6265886412
      0.1127097147
      0.1692109380
      0.5510574731
      0.8386843040
      0.3113352931
     -0.1691729103
     -0.3065070947
     -0.8636305676
     -0.3146142945
      0.5032193020
     -0.6816611144
     -0.9934558213
      0.3325895425
     -0.1984907570
      0.4336282168
      0.4607148673
     -0.5437816820
     -0.9346918672
     -0.1255341293
     -0.9929127499
     -0.4303503629
      0.5056092148
      0.4911256400
      2.4435870574
     -1.4514934813
     -1.5271336509
     -0.3487409568
      1.5498545794
      1.9722627476
     -1.3365370831
      2.8626971116
     -0.0212811104
     -0.5397000905
     -2.3109408456
     -1.5612325591
     -0.1712812032
     -1.5000746490
      0.3518558338
     -0.5927018293
      1.1131763296
      0.8732196024
     -0.1482097979
      0.1592771344
     -2.3889906057
     -0.9282982586
      2.6646419687
      2.3010794924
     -1.9848859769
      0.4961492771
      0.5952384689
     -2.3087257867
      2.9060368003
      0.0289979641
      0.0052212566
     -1.0986366818
     -0.6822223182
     -0.1136267379
     -0.1236019151
     -0.1454830453
      0.6509204905
      0.7996804306
     -0.0989250593
      0.3818091382
     -0.9568574497
      0.5063376541
     -1.2176494815
     -0.1782174544
     -1.1306710008
      0.4199069094
     -0.2935758733
     -0.7724716192
      0.1329444608
      1.0095369570
      1.1503545657
     -0.0777490916
     -0.9295311104
      1.2254021837
      0.4442203986
      0.7031885282
     -1.1452018782
     -0.3708995162
     -0.4076858619
      1.1303784299
      4.9542730281
      0.5216957054
      1.0283826708
      0.2912360613
     -1.3209104855
     -0.1426467551
      0.5338268538
     -0.1482240953
      0.4846440052
     -0.3047280326
     -2.0982655864
     -0.4023399169
     -0.7375762946
      0.0124936417
      1.1723311100
      0.0123583519
      0.0597247959
     -0.0064653201
      0.1910759248
     -0.0154020876
      0.3126117837
     -0.0620450535
     -0.0750352061
      0.5517487711
     -0.1964200360
      0.6989224549
      0.9008789349
      0.3572020600
     -0.7980565634
      0.2758381454
     -1.1582670346
     -0.6283010317
      1.6626580942
      0.5378055968
      0.2786352667
      0.2281099680
     -0.7157493552
      0.3906816122
      0.0468629814
      0.0896024437
      2.5171611268
     -0.4143085972
     -0.4901430039
     -0.9166228962
      0.9814323338
      0.6825718203
      0.1811628147
      0.5522962853
     -1.9136116749
     -0.7537675259
      0.5960581173
      0.4418197286
     -0.6715179336
      0.4746483546
      0.0091089503
     -0.4037579924
     -0.6893640362
     -0.3655570157
      0.3960553424
      0.7483668165
      1.3905963678
     -0.2297367012
      0.5601546001
      0.4740556821
      0.1077791876
      0.3831032992
      0.4662148549
      0.2239118179
     -0.6951454051
      0.3169706501
      0.1183851308
      0.1354926063
     -0.7464699766
      0.3661474425
      1.3548489969
     -0.9815115424
      0.1006281382
     -0.1029920280
     -0.0596172717
     -0.3986325139
     -1.3897710334
     -0.1849743074
      1.8658203409
     -0.0371611439
     -0.1960560325
      1.0929819071
      0.7270022016
     -0.0797686329
      0.5751464548
      0.3382935380
     -1.7014717406
     -0.0981705874
     -0.4422300898
      0.3941354399
      1.5065482009
     -0.1699869997
      1.3934536198
     -1.0057443025
     -0.3326414641
      0.6591559936
     -0.1025086378
     -0.1354319130
      0.5730297706
      0.1639756964
      0.8107058006
      0.3472817244
      0.1897003428
     -0.3351086889
     -0.3020033193
      1.1753822310
     -1.8711906368
      0.0641638930
      0.1171663501
     -1.0838460352
      0.1446067547
     -0.4265147616
      0.7905795288
     -0.2519508357
      0.4063644502
      0.7821896969
      0.3177779050
     -1.0284800185
      0.1273885896
     -0.0960676530
      1.1340630255
     -0.2114966910
      0.0184260959
     -0.7233418951
      0.4432342626
      0.4786899918
      0.8966955731
      0.3157450012
     -0.8445246139
     -0.5705600617
      1.3151859704
      2.0747535039
     -1.2686411466
      0.4865516223
      0.7392184930
      0.7068534541
      1.8770743367
      0.4264980166
     -2.2225171120
      2.4953241664
      0.0820886133
     -0.9386684139
      0.9713625693
     -0.4732065138
      1.5730181409
      0.2322540010
     -0.5845799166
      0.2700351677
     -0.5029526008
     -1.9968034083
      0.3129305207
     -1.8575376974
      2.4388752854
      0.4646292761
     -0.9552459956
      0.2743477068
      0.5995086395
     -0.6382249529
     -0.1823702281
     -0.0903221222
     -1.0051381377
      0.3171442400
     -0.2766868509
      0.4697814521
      0.6583047201
      0.1437522956
     -0.8667569787
      0.4480568522
     -0.2808271799
     -0.2057161981
      0.9911216239
      0.0654017328
     -0.0465266423
      1.0108826251
     -0.0319943795
      1.0244690064
     -2.3660938680
     -0.4097821422
      0.0970852802
     -0.1279724252
     -0.2628730833
      1.2382685718
      0.5490018815
      1.5295303253
     -1.0490600450
     -1.5430892891
      4.4638739323
      2.2010735211
     -0.5960927081
      3.8317976207
      1.5694938660
      3.3379556845
     -0.9306327111
     -0.3407927657
     -0.1608949492
      3.7515631539
     -0.1376130042
      1.0258671427
     -3.3621413669
      1.6895800108
      0.0414825872
      0.7806486237
      1.0454492417
     -1.2306044671
      3.3356012240
      0.4363165994
      3.4227515869
      0.4456034260
     -2.4461349858
     -1.5800083215
     -0.0498355463
      0.0230387269
      0.0223145761
     -0.0694399607
     -0.0133186724
      0.0658992816
     -0.0240093069
     -0.1100300323
      0.1366770874
     -0.0970344424
     -0.0836474690
     -0.0938361687
      0.0831773886
     -0.0103570346
      0.0243320113
     -0.0609214113
     -0.0483079464
     -0.0995461432
     -0.0202505538
      0.0892504125
     -5.3454845370
