     -0.1377039848
     -0.3806263589
      0.7662546557
     -2.6327938163
      2.1003408600
      1.0379208506
     -0.5754832258
     -1.2255227713
     -0.8970550199
     -1.3470367300
     -1.0825856439
      0.1453578614
      0.2259271060
     -0.8231712084
     -0.9389427226
      2.5705116722
     -0.7322199869
      2.9160937455
      0.7164474868
      0.2270673741
      0.8706156644
      1.0794644606
      0.5503313386
      1.3990161167
     -0.0944937686
     -0.8232641170
     -0.4642064911
     -0.2307530762
     -0.2605099573
      1.4121913072
     -1.2993460076
     -0.0882325078
      0.4098305511
      0.9476396338
      0.9294344774
     -0.2603185503
     -0.9786385840
     -2.6314308213
      1.1360942918
     -1.0335846531
      0.1803341484
      0.3513625449
     -0.6303451628
      2.7857369170
     -1.4268026818
     -0.4898469639
      1.1814303046
      4.0019878158
      1.0875518042
      2.0682125048
      1.9450092980
      0.1325646146
     -1.2981504275
      2.1275198754
      0.7756220195
     -3.7720385254
      1.0219989349
     -1.7379465663
     -1.5830787234
      0.5413427686
     -1.5324197295
     -1.2994313133
     -0.5049144119
     -1.2832172031
      0.7602669073
      0.0095318366
      1.6346813039
     -0.0905024050
      1.0243556385
     -1.6557557752
      2.6450009993
      1.2783986802
      0.7096518514
     -1.3006051149
     -0.2375096188
      0.4795392981
      0.7362985631
      2.8676996340
     -0.7596885373
      0.4116520437
      0.5827738969
     -0.0632332416
     -1.4228505375
     -1.0136820543
     -0.3941664841
      1.3269437527
     -2.6205775752
     -5.4326301099
     -0.0118696658
     -1.7586944137
     -1.5205824523
     -2.8052586181
      2.1780085577
     -2.8891274046
     -1.1620869088
      1.4700586579
      0.7222023858
      0.2021578302
      0.4735137899
      0.8923397716
      0.1085863316
      0.2791656470
     -0.2824128331
      1.4413007702
     -2.3024045381
      1.3215365653
     -0.8085004719
      0.3982130654
     -1.0343283884
      0.7889371441
     -1.0379964697
     -2.0351081514
     -1.8007588433
     -0.2287527599
      0.2769878464
      0.5241588251
      1.0802394838
     -1.3369780125
      0.8917091320
     -0.7924942499
      0.4808444802
      0.1169675645
      5.0346967229
     -0.2338016676
     -1.4457619159
      1.1175260617
      4.2909072248
      4.8643497056
     -1.1353897466
      0.5452924999
      2.4075632546
      6.3269535008
     -1.3110284318
      3.4182834879
      0.8977165238
     -1.1500951592
     -1.7429289934
     -0.8063391401
     -0.5700172380
     -1.6925790854
     -0.4410318591
     -0.3722051013
     -1.8879769066
      1.9746943906
      0.3144277846
     -0.6173915993
     -0.5215648522
     -1.5651980027
     -1.1228009598
     -0.3509309110
     -1.1454953317
      0.3387795237
      0.4257232311
      0.7893081300
      0.9694193066
     -1.0655378943
     -0.1590491439
     -0.0058559198
     -0.0786025323
     -0.5333346601
     -1.4555980404
     -0.2093956991
      0.5053206919
      2.4760491066
     -0.5271276655
     -1.0215699826
      2.1981186989
     -0.5535985850
      1.1963424359
      1.3013687349
      4.1027768282
     -0.5519839532
      0.1552941945
     -0.7051548991
     -0.6561698891
     -0.1599625019
     -0.0501430052
     -0.3441528615
      0.5596248691
      1.7377366506
     -0.9704230476
     -0.7543871802
     -1.5392676007
      0.6384454912
      2.1462391632
      1.7057706378
     -0.9745601415
     -1.9941313126
     -0.2679990435
     -0.3486132299
      0.1180184280
     -2.8554491721
     -0.7949937741
     -0.8644380264
     -0.4404229874
      0.1278970272
      0.6630850501
      0.0292420670
     -0.5011057137
     -0.0240641445
      2.1489934400
      0.6375171573
      0.8212250848
     -1.3962920962
     -3.9906160942
      1.7112615881
     -1.7743361589
      0.0718326723
     -1.7890559758
     -1.9053051146
     -2.2584469648
     -0.1604559493
     -1.4805042251
      0.8783565730
      2.5215414527
     -0.1268237663
     -1.2952273795
     -0.9779706676
      0.9863674773
     -1.2932701636
      1.4783890556
      0.1680321978
     -0.6411648269
     -0.3319476126
     -1.5927771796
     -1.9508195159
      0.4540740846
      0.1777711907
      0.2624781711
     -0.6816102202
      1.7118786960
      1.7687637838
      1.2087274736
     -1.2065609255
      0.8232130905
      0.2376043984
     -0.4249651497
     -0.8660464715
      1.6997508972
     -0.3786406650
     -1.1087008607
      0.2174147862
      0.1799519063
     -0.0541050355
      1.2522711988
     -0.6494726057
      0.7366935602
      0.5069769531
      1.8499793519
      0.3000559445
      1.6669158378
      0.3917779651
      1.4648582213
      0.2289234682
     -1.7167557724
     -0.9740563669
      0.6180177071
      0.9177541855
     -0.0864569513
     -0.7939557131
     -0.6408450002
      0.9771541718
      1.0364869905
      0.0687038311
     -0.1634702135
      3.4300922568
     -0.2852030899
     -0.0136246486
     -0.0688525877
     -0.8338954237
     -0.8079582807
     -1.2051197813
     -0.7372623650
      3.2385343341
     -1.2097859248
     -0.3880629718
      0.5341662201
      1.4979347808
     -1.8013838669
      1.0041811729
     -0.0194459599
     -0.0130142828
      0.8348808339
      1.0604527603
     -0.0511053732
     -0.1648906767
     -0.6549825590
     -0.3679211982
      0.8163570587
      0.2186463264
      0.2488234872
      0.2721154819
      0.3077819001
     -0.6929880199
      0.9396403774
      0.0540210356
     -0.4452186341
      0.4710621716
     -0.3654994278
     -0.5357970514
      0.5580899849
      0.2551864753
     -0.7021983924
     -0.4476201182
     -0.0183262546
     -1.6994035082
     -0.1673790950
     -0.1209871938
      0.7003944610
      0.3162432579
      0.6997904780
      0.1192340868
      0.3093368499
     -1.0793074300
     -0.3502992612
     -0.0479390626
      0.2393411345
     -0.0408575955
      0.3820524176
     -0.3116183120
      0.1893197706
      0.1967743661
      0.2972484430
     -0.3546750101
      0.1116069846
     -0.3307070175
     -0.2155652027
      0.0891096071
      0.3654627163
      0.1239472522
     -0.0327878665
     -0.1218841859
     -0.0793718225
     -0.1154930774
      0.0209039342
     -0.1101582076
     -0.0537087716
     -0.3293865926
     -0.0625535699
     -0.0847817696
     -0.0523533731
      0.0763310881
     -0.5876315932
      0.9379593205
     -0.7644682170
      0.4005948588
     -0.1641632361
     -0.2909809422
     -0.0021517203
      0.0867844096
      0.2205396190
     -0.5179425971
     -0.3202333805
     -0.5063902897
      0.0795281687
     -0.3439080377
      0.4594289782
     -0.9209598247
     -0.1767353021
      0.9196226845
      0.3107250307
      0.6835218654
     -0.3226029652
      0.0330211094
     -0.2071046785
      0.0678305523
     -0.0060466494
     -0.0497107746
      0.0942016220
     -0.1557197409
      0.3775396503
     -0.1772055583
      0.4774493514
     -0.5696396076
     -0.1355664670
     -0.0736211370
      0.3931181704
      0.7071297918
      0.2483203945
     -0.1709178967
     -0.6986828315
      0.2903384311
     -0.1373028307
     -1.3775341745
      2.2873520266
     -0.2131506019
     -0.6128720038
      0.8432633889
     -0.4520588764
     -0.2949971338
     -3.0721731568
      0.9057176752
     -0.7241488326
      2.0682135315
     -0.9932501592
     -0.2030834804
     -1.7606938626
      1.5047665202
     -0.9039651970
     -0.1842204679
      0.5157434148
      2.1085289867
     -0.9539742034
      3.1240277641
      0.4647314278
     -1.3090425508
     -0.7916747562
     -0.2708283471
      0.8864283672
      3.0188538615
     -1.9867989537
     -0.8724848497
     -0.3976673190
     -1.6753480765
      1.1518849409
      0.5514368803
      0.0639119454
     -0.4783364471
      0.4444058457
     -2.0602649602
      1.1269628309
      0.1744870176
      0.0430067261
     -2.1827957528
      0.0952976774
     -0.1210265950
      0.5305162156
      0.5936279174
      0.2804813182
      0.4015913699
      0.3640607121
      0.0747792939
      1.1972220965
      0.1770069392
     -0.5159573169
     -0.3685421722
     -0.2855292465
      0.8349167472
     -0.4497670776
      2.8508580469
      0.8943177191
     -1.3944960586
     -0.5795386590
     -2.2116197603
     -1.3521908751
     -3.1736624352
     -0.0004456970
      1.2260979999
      1.2564840231
     -3.1302954774
      4.1640152884
      0.2282420736
      2.3013784677
     -1.2079518894
     -0.6902686378
      0.5353305962
      1.2567569194
      0.1686878693
      1.0055128969
      1.4831960351
      0.9086436045
      0.8720756552
      2.2543792189
     -1.4101121232
     -0.6263442391
      1.2059635832
      0.5241391119
     -0.6377595041
     -0.1248247275
      1.0747133615
      0.1644769587
      0.4038817089
     -0.0883262982
      1.0467910077
      1.1903928716
      0.8437284453
     -1.1429491313
     -1.6663710327
      0.4181007981
     -0.5639742102
     -0.5671920589
     -0.9553364801
      0.1590732055
     -0.4073502843
     -0.0194934453
      0.2520808802
     -0.0324040486
     -0.4945805240
     -1.7208909931
     -2.2320631569
     -0.5781589225
     -0.0989862674
      1.0117459307
      0.4498337335
     -1.0373680134
      0.6752579724
     -2.0959587836
      0.6062440761
     -0.5643907131
      2.2838376491
     -2.3460295637
      0.3119472046
     -0.0369648511
     -0.5133118858
      0.8317119069
      2.0822581430
     -0.8156667374
     -0.5068553324
     -0.0762417108
      1.7275844727
     -3.2364403892
     -0.5345852629
     -2.0737439038
     -0.1216014498
     -0.7235623669
     -0.3364048862
      1.4136415003
     -0.0666349513
     -1.1839836332
      0.0513151726
      1.2475087837
     -0.0497524928
     -0.3314080417
      1.4342387029
     -0.4711904462
     -0.1943972794
      0.0474773647
      1.2095908253
     -0.5218782215
     -0.1873309731
      0.6862605034
     -0.1685344123
      0.0985525884
      0.3101783029
      0.5726823911
     -0.1703228045
      0.1620625474
     -0.0187181380
     -0.2775331750
      0.0817778063
     -1.0209870600
      0.3046864705
      0.2993729754
      1.4885732137
      1.7062921912
     -1.4202582657
      0.6698058437
      0.7054957017
      1.4766883185
     -0.1127105183
     -0.8982504546
     -0.1873791937
      0.1903472549
      0.2625709373
     -0.3756059343
     -1.6900429038
     -0.1457404388
     -0.1857763388
      0.3093888615
     -1.4247494489
     -1.5614372553
      1.4112439586
      0.0280663122
      0.3049511481
      0.2571104741
      2.1970513242
     -0.3354404091
     -0.5907778749
      0.8877846031
     -0.8381922426
      1.9300708691
     -2.3438080788
     -0.3767554603
      0.2613261547
     -1.0126578284
     -1.4390998669
     -0.1869715617
     -1.4230635640
     -0.5738658373
     -1.2772223449
      0.0024246631
     -0.9606792747
     -0.7111333099
      0.2855964086
      0.0419842596
      0.6795094393
     -0.1158796374
      0.0065498654
      2.0738531070
      0.0483468444
     -0.1678968922
     -0.9429269954
     -0.4882742613
      0.9647911264
     -0.2660205247
      1.2079501463
      0.7730885284
     -0.4751078776
      0.2050267021
     -0.1857628352
     -0.2023837802
      0.6305044263
     -0.4606311079
     -0.0526740798
     -0.6597952944
     -0.2418033136
     -0.5888221801
     -0.1323908722
     -0.6888053944
     -0.3004147058
      0.4964565585
     -1.4657970072
     -0.3015376033
      1.1063993133
     -0.1963882234
     -0.8510852383
     -0.3101718896
     -0.5935830210
      1.1107333153
     -0.2133196707
     -0.2825675403
     -0.7291661304
     -0.6242156858
      0.0824976355
     -0.9781658777
      0.6232092642
      0.7573057641
     -1.5120595083
      0.9011164807
     -1.0500753352
      0.0475661965
     -0.3251460048
     -0.6551141253
      1.8524348051
      0.9551617192
     -1.2710987906
     -2.5919555324
     -1.0812815109
      0.7322304420
      0.2204058519
      0.5278963461
      0.9029819729
      2.0549237672
     -0.6386980753
     -2.6830889495
      1.6810940966
      1.4220805901
     -0.4163344642
      1.0379261403
     -1.1575589437
     -0.0858548282
     -1.8671008955
      0.6461783123
     -0.6877393725
      0.5723770788
      2.6557613548
     -0.5269541567
     -0.3572738460
     -0.3603491918
      1.1145636277
      0.4974771383
      0.3654809348
      0.3001838117
      0.0862042971
      0.2275111625
      0.2716212414
     -0.0670008645
      0.0448153564
     -2.7333255967
      0.1559477608
     -0.5451929310
      1.5570545927
      0.7211481036
     -1.3027245546
     -0.0314612430
      1.0903157015
      1.3260932935
      0.2265997801
     -1.5410068691
     -0.5097999993
     -2.3309844991
     -0.1982716023
     -0.0751805157
      0.2275794432
     -0.0064578232
      0.3163863793
     -0.1881439394
     -1.1709024623
      0.0427508726
      0.5521017963
      1.0398685910
      1.3177270478
      0.5394119810
      0.8071358916
      0.0996127799
     -0.8364059549
     -0.8231169757
     -0.3642449808
     -0.8877824408
      1.2464048437
      0.7750179850
     -1.3999408145
      0.1459303901
     -0.3327776095
     -0.5798105175
      0.1892933254
      0.3539173352
     -0.5638419584
     -0.4499324904
      2.3815835379
      0.2576186448
      0.8487202519
     -1.2570942933
     -2.0785369493
      0.1602821353
     -0.2098975484
      0.3763538240
      0.3999469131
      0.0882112098
      2.6012046136
     -4.9068272420
      1.7431475918
      2.5296057977
      0.3974289126
     -0.6842835963
     -1.2896850309
     -0.5705873950
      0.2477240557
      0.0359473486
     -0.4886566598
      0.0291844869
      0.2136285847
     -0.8504796461
      0.0030452847
      1.2511364026
     -1.1071072012
      0.5757682467
     -0.8308968101
      1.1279142497
     -0.5981793016
      1.1266412444
     -0.9238564143
     -1.0997456891
      0.6203456804
      1.4215783349
     -0.1558390906
     -0.0560104914
      0.2384957304
      0.5572159243
      0.7099302446
     -0.2137551959
     -1.3852556725
     -0.2753585137
     -0.7842830322
     -0.7389900957
      0.2279785028
      2.0800747780
      0.6648327485
     -0.4717384338
      0.3490191189
     -0.0283804275
     -0.1414581029
      0.4281192773
      0.2081840752
      0.1500203136
     -1.9358656743
      0.0308651449
      0.6112018576
     -0.1440077675
     -0.8680870514
     -1.0265387788
     -0.1940523009
      0.8206475207
     -0.6697323100
      0.8596821267
      0.2783780110
     -0.3084514149
      0.9205321173
      1.5351991678
      1.2466191437
      0.7600579435
     -0.8208087122
      0.3397057774
      0.5296476184
      1.3930203777
     -1.5081540956
     -1.1550779234
      0.3864364890
      1.4583832730
      0.0803872459
      1.4749301708
      0.1985936938
     -0.3822894520
     -0.3619380405
      0.1499269984
     -0.3684820502
      0.8855263942
      0.6287971147
      0.8382055166
      0.8816807256
      3.3546753507
      0.7983978208
     -0.6911545353
     -0.5548847020
     -1.5935738801
      1.8504547205
      0.5002854711
      0.0813980604
     -2.0001939628
     -0.8007331228
     -0.3266117056
      0.9937172316
      0.8094719637
     -0.5024147051
     -0.4772261536
     -0.7297613939
     -1.3943843461
      0.1401559774
      0.0541317129
     -0.2598277098
      0.0028654983
     -0.5866487943
     -0.3379891060
     -0.0914675220
      0.2616359549
      0.0438911225
      0.7191730224
      0.2375824029
     -0.2619863882
     -2.3861541884
     -1.0728693844
      0.0970775628
      0.0013416940
      0.4799454142
      0.1658001993
     -0.1070278883
     -0.6717562403
     -0.1547926676
      0.8527799866
      1.3986771599
     -0.2424442294
     -0.1008976065
      0.7659472838
     -0.0101366083
     -0.6410624821
      0.5991061725
      2.0089802177
      0.5252214919
     -1.2466132857
      0.1488866066
      0.7066297336
      0.9804378178
     -0.5758655089
     -0.1140369959
      0.6024739079
      0.0415811086
     -0.1665622184
     -0.6378171217
     -1.1386643400
     -0.2111170155
     -4.1299134993
      1.9446109443
      2.3911615929
      0.0259432096
     -5.3470000158
     -1.1332691590
     -0.1007450153
     -1.0223900987
      0.7984345639
      0.1948376709
     -0.2501904241
      2.5353389931
     -0.7830215989
      1.7853224540
      0.0763860550
      0.4527111803
     -0.9602488342
     -0.3685730323
      1.4314416133
      3.9053502265
      0.4732993434
     -0.2961332104
     -0.8344313609
     -0.1792326912
     -0.6623567909
      0.7374282708
      0.1623276918
     -0.1464840013
     -2.4088474661
      0.9926976881
      0.6238738697
     -0.6688526274
      0.1964803991
      1.2194422438
     -0.1919784228
     -1.0505098756
      0.9592159537
     -0.6055662037
      0.8984707186
      0.5678972303
     -1.6990143738
      0.0212674912
      0.0108809521
      0.0686001632
      0.4302446285
      0.2284306456
     -0.4553514837
      0.3015205932
      1.4920796348
      1.0356596891
      1.5990396413
     -0.7010570427
     -0.5265326073
     -0.0707942697
      0.2663804148
      0.3287982814
     -0.2329490004
      0.5320893717
     -1.2374732267
      0.2113472393
     -0.1671986961
     -0.3405282826
     -0.6847143347
      0.1037546575
      0.7835130413
     -0.4415038113
     -0.1475523858
     -0.2824781144
     -0.3362650832
      0.3656812465
      0.4788177874
     -2.0855053153
     -0.5696211798
     -0.6740662114
      0.1686013598
     -0.4586719301
     -0.4338006966
     -0.0444924673
      0.4274103329
      1.2488273986
     -1.6640090055
      0.4953392070
      0.4845849453
      0.4084995793
     -0.4038781558
     -0.6051243009
     -0.3146824858
     -0.0025653454
      0.3537944079
      0.8375275276
      1.4321582951
     -0.5720562773
     -0.0548755450
      0.4937222262
      0.7992731452
     -0.5764353427
     -1.5631575264
     -0.1369698813
      1.2760839729
      1.0502409000
     -3.0365757416
      3.1234683229
     -0.2609292222
      1.2760165333
      0.4676989433
     -1.8830259525
      0.8145518793
      0.2645708753
     -0.3805996202
     -0.1506525003
      0.4770798736
      3.3017930797
      0.1493996553
      0.3557299663
     -2.0360273132
     -0.9729104877
      2.2975501473
      0.7066493162
     -0.2992444743
     -1.3452666011
      0.0195218654
     -0.0367721963
      0.0671488829
      0.1716867700
     -0.0551336431
      0.0315547206
      0.1859584402
      0.2072123662
      0.0632149963
     -0.0294586509
      0.0196117281
      0.0110450629
      0.0691074297
      0.0485082564
     -0.0943668276
     -0.0296907542
     -0.0072201199
      0.1083962576
     -0.0207153046
      0.0397091599
     -5.6325597308
